<?xml version="1.0"?>
<opencv_storage>
<cascade>
  <stageType>BOOST</stageType>
  <featureType>HAAR</featureType>
  <height>24</height>
  <width>24</width>
  <stageParams>
    <boostType>GAB</boostType>
    <minHitRate>9.9900001287460327e-01</minHitRate>
    <maxFalseAlarm>5.0000000000000000e-01</maxFalseAlarm>
    <weightTrimRate>9.4999999999999996e-01</weightTrimRate>
    <maxDepth>1</maxDepth>
    <maxWeakCount>100</maxWeakCount></stageParams>
  <featureParams>
    <maxCatCount>0</maxCatCount>
    <featSize>1</featSize>
    <mode>BASIC</mode></featureParams>
  <stageNum>5</stageNum>
  <stages>
    <!-- stage 0 -->
    <_>
      <maxWeakCount>3</maxWeakCount>
      <stageThreshold>-9.6920984983444214e-01</stageThreshold>
      <weakClassifiers>
        <_>
          <internalNodes>
            0 -1 0 -5.3235191106796265e-01</internalNodes>
          <leafValues>
            -9.5918369293212891e-01 8.6666667461395264e-01</leafValues></_>
        <_>
          <internalNodes>
            0 -1 5 -9.3107625842094421e-02</internalNodes>
          <leafValues>
            -8.7418973445892334e-01 9.7339689731597900e-01</leafValues></_>
        <_>
          <internalNodes>
            0 -1 3 -4.1045881807804108e-02</internalNodes>
          <leafValues>
            -6.8112891912460327e-01 8.6416351795196533e-01</leafValues></_></weakClassifiers></_>
    <!-- stage 1 -->
    <_>
      <maxWeakCount>3</maxWeakCount>
      <stageThreshold>-8.8773781061172485e-01</stageThreshold>
      <weakClassifiers>
        <_>
          <internalNodes>
            0 -1 11 -2.7036329731345177e-02</internalNodes>
          <leafValues>
            7.7777779102325439e-01 -8.8118809461593628e-01</leafValues></_>
        <_>
          <internalNodes>
            0 -1 14 -1.3140219962224364e-03</internalNodes>
          <leafValues>
            -8.2657581567764282e-01 6.7744791507720947e-01</leafValues></_>
        <_>
          <internalNodes>
            0 -1 13 -1.6649506287649274e-03</internalNodes>
          <leafValues>
            8.2002609968185425e-01 -5.7814955711364746e-01</leafValues></_></weakClassifiers></_>
    <!-- stage 2 -->
    <_>
      <maxWeakCount>3</maxWeakCount>
      <stageThreshold>-7.8478741645812988e-01</stageThreshold>
      <weakClassifiers>
        <_>
          <internalNodes>
            0 -1 12 -2.2338945418596268e-03</internalNodes>
          <leafValues>
            9.5121949911117554e-01 -8.1395345926284790e-01</leafValues></_>
        <_>
          <internalNodes>
            0 -1 7 1.5933763235807419e-02</internalNodes>
          <leafValues>
            -7.9423356056213379e-01 6.8167507648468018e-01</leafValues></_>
        <_>
          <internalNodes>
            0 -1 4 4.0585994720458984e-03</internalNodes>
          <leafValues>
            -6.5250903367996216e-01 8.9809322357177734e-01</leafValues></_></weakClassifiers></_>
    <!-- stage 3 -->
    <_>
      <maxWeakCount>4</maxWeakCount>
      <stageThreshold>-1.4790080785751343e+00</stageThreshold>
      <weakClassifiers>
        <_>
          <internalNodes>
            0 -1 10 1.2546789832413197e-02</internalNodes>
          <leafValues>
            -8.0000001192092896e-01 6.9565218687057495e-01</leafValues></_>
        <_>
          <internalNodes>
            0 -1 2 2.5663778185844421e-02</internalNodes>
          <leafValues>
            -7.9082846641540527e-01 5.5496257543563843e-01</leafValues></_>
        <_>
          <internalNodes>
            0 -1 8 -1.6950239241123199e-01</internalNodes>
          <leafValues>
            -7.3771715164184570e-01 5.0329071283340454e-01</leafValues></_>
        <_>
          <internalNodes>
            0 -1 9 4.2095724493265152e-03</internalNodes>
          <leafValues>
            -5.1813483238220215e-01 8.4953761100769043e-01</leafValues></_></weakClassifiers></_>
    <!-- stage 4 -->
    <_>
      <maxWeakCount>2</maxWeakCount>
      <stageThreshold>-5.6580328941345215e-01</stageThreshold>
      <weakClassifiers>
        <_>
          <internalNodes>
            0 -1 6 -1.0152865946292877e-01</internalNodes>
          <leafValues>
            2.6881721615791321e-01 -9.8773008584976196e-01</leafValues></_>
        <_>
          <internalNodes>
            0 -1 1 1.0843755304813385e-01</internalNodes>
          <leafValues>
            -8.3462047576904297e-01 5.4620361328125000e-01</leafValues></_></weakClassifiers></_></stages>
  <features>
    <_>
      <rects>
        <_>
          0 0 24 24 -1.</_>
        <_>
          0 8 24 8 2.</_></rects>
      <tilted>0</tilted></_>
    <_>
      <rects>
        <_>
          0 1 16 21 -1.</_>
        <_>
          8 1 8 21 2.</_></rects>
      <tilted>0</tilted></_>
    <_>
      <rects>
        <_>
          0 15 8 7 -1.</_>
        <_>
          4 15 4 7 2.</_></rects>
      <tilted>0</tilted></_>
    <_>
      <rects>
        <_>
          1 4 3 15 -1.</_>
        <_>
          2 4 1 15 2.</_></rects>
      <tilted>0</tilted></_>
    <_>
      <rects>
        <_>
          1 11 2 5 -1.</_>
        <_>
          2 11 1 5 2.</_></rects>
      <tilted>0</tilted></_>
    <_>
      <rects>
        <_>
          2 18 18 6 -1.</_>
        <_>
          2 20 18 2 2.</_></rects>
      <tilted>0</tilted></_>
    <_>
      <rects>
        <_>
          3 9 14 6 -1.</_>
        <_>
          3 11 14 2 2.</_></rects>
      <tilted>0</tilted></_>
    <_>
      <rects>
        <_>
          4 0 6 6 -1.</_>
        <_>
          4 3 6 3 2.</_></rects>
      <tilted>0</tilted></_>
    <_>
      <rects>
        <_>
          6 14 18 10 -1.</_>
        <_>
          12 14 6 10 2.</_></rects>
      <tilted>0</tilted></_>
    <_>
      <rects>
        <_>
          8 15 4 2 -1.</_>
        <_>
          8 15 2 1 2.</_>
        <_>
          10 16 2 1 2.</_></rects>
      <tilted>0</tilted></_>
    <_>
      <rects>
        <_>
          8 19 9 2 -1.</_>
        <_>
          8 20 9 1 2.</_></rects>
      <tilted>0</tilted></_>
    <_>
      <rects>
        <_>
          8 20 10 4 -1.</_>
        <_>
          8 22 10 2 2.</_></rects>
      <tilted>0</tilted></_>
    <_>
      <rects>
        <_>
          12 18 1 2 -1.</_>
        <_>
          12 19 1 1 2.</_></rects>
      <tilted>0</tilted></_>
    <_>
      <rects>
        <_>
          19 11 2 1 -1.</_>
        <_>
          20 11 1 1 2.</_></rects>
      <tilted>0</tilted></_>
    <_>
      <rects>
        <_>
          23 20 1 3 -1.</_>
        <_>
          23 21 1 1 2.</_></rects>
      <tilted>0</tilted></_></features></cascade>
</opencv_storage>
