<?xml version="1.0"?>
<opencv_storage>
<cascade>
  <stageType>BOOST</stageType>
  <featureType>HAAR</featureType>
  <height>24</height>
  <width>24</width>
  <stageParams>
    <boostType>GAB</boostType>
    <minHitRate>9.9998998641967773e-01</minHitRate>
    <maxFalseAlarm>5.0000000000000000e-01</maxFalseAlarm>
    <weightTrimRate>9.4999999999999996e-01</weightTrimRate>
    <maxDepth>1</maxDepth>
    <maxWeakCount>100</maxWeakCount></stageParams>
  <featureParams>
    <maxCatCount>0</maxCatCount>
    <featSize>1</featSize>
    <mode>BASIC</mode></featureParams>
  <stageNum>7</stageNum>
  <stages>
    <!-- stage 0 -->
    <_>
      <maxWeakCount>4</maxWeakCount>
      <stageThreshold>-1.7149223089218140e+00</stageThreshold>
      <weakClassifiers>
        <_>
          <internalNodes>
            0 -1 5 -1.0956574976444244e-01</internalNodes>
          <leafValues>
            -9.4520545005798340e-01 8.3999997377395630e-01</leafValues></_>
        <_>
          <internalNodes>
            0 -1 0 -6.4777716994285583e-02</internalNodes>
          <leafValues>
            -8.9030081033706665e-01 9.0233057737350464e-01</leafValues></_>
        <_>
          <internalNodes>
            0 -1 20 -6.2771383672952652e-03</internalNodes>
          <leafValues>
            -7.1148103475570679e-01 7.8322106599807739e-01</leafValues></_>
        <_>
          <internalNodes>
            0 -1 11 -2.3894529789686203e-02</internalNodes>
          <leafValues>
            8.3206504583358765e-01 -7.6147699356079102e-01</leafValues></_></weakClassifiers></_>
    <!-- stage 1 -->
    <_>
      <maxWeakCount>3</maxWeakCount>
      <stageThreshold>-7.7852660417556763e-01</stageThreshold>
      <weakClassifiers>
        <_>
          <internalNodes>
            0 -1 19 -6.2025055289268494e-02</internalNodes>
          <leafValues>
            -8.9189189672470093e-01 7.5000000000000000e-01</leafValues></_>
        <_>
          <internalNodes>
            0 -1 9 -4.3093986809253693e-02</internalNodes>
          <leafValues>
            -7.4317365884780884e-01 9.0647339820861816e-01</leafValues></_>
        <_>
          <internalNodes>
            0 -1 21 -3.8838705513626337e-03</internalNodes>
          <leafValues>
            8.5653895139694214e-01 -6.2702423334121704e-01</leafValues></_></weakClassifiers></_>
    <!-- stage 2 -->
    <_>
      <maxWeakCount>3</maxWeakCount>
      <stageThreshold>-1.0727142095565796e+00</stageThreshold>
      <weakClassifiers>
        <_>
          <internalNodes>
            0 -1 15 -4.7255051322281361e-03</internalNodes>
          <leafValues>
            9.4666665792465210e-01 -8.2965302467346191e-01</leafValues></_>
        <_>
          <internalNodes>
            0 -1 6 -1.5306081622838974e-02</internalNodes>
          <leafValues>
            -7.9384642839431763e-01 7.4147897958755493e-01</leafValues></_>
        <_>
          <internalNodes>
            0 -1 17 -9.7714373841881752e-03</internalNodes>
          <leafValues>
            5.5078524351119995e-01 -9.7134453058242798e-01</leafValues></_></weakClassifiers></_>
    <!-- stage 3 -->
    <_>
      <maxWeakCount>3</maxWeakCount>
      <stageThreshold>-9.3772792816162109e-01</stageThreshold>
      <weakClassifiers>
        <_>
          <internalNodes>
            0 -1 3 2.6329234242439270e-02</internalNodes>
          <leafValues>
            -8.8811188936233521e-01 5.8490568399429321e-01</leafValues></_>
        <_>
          <internalNodes>
            0 -1 2 1.9510205835103989e-02</internalNodes>
          <leafValues>
            -8.5395234823226929e-01 6.1157143115997314e-01</leafValues></_>
        <_>
          <internalNodes>
            0 -1 16 1.0776775889098644e-02</internalNodes>
          <leafValues>
            -6.6118752956390381e-01 8.9527499675750732e-01</leafValues></_></weakClassifiers></_>
    <!-- stage 4 -->
    <_>
      <maxWeakCount>3</maxWeakCount>
      <stageThreshold>-8.1276357173919678e-01</stageThreshold>
      <weakClassifiers>
        <_>
          <internalNodes>
            0 -1 18 -8.1884354352951050e-02</internalNodes>
          <leafValues>
            5.1724135875701904e-01 -9.1304349899291992e-01</leafValues></_>
        <_>
          <internalNodes>
            0 -1 14 -4.1574374772608280e-03</internalNodes>
          <leafValues>
            7.4244266748428345e-01 -6.7543542385101318e-01</leafValues></_>
        <_>
          <internalNodes>
            0 -1 8 -1.6003225464373827e-03</internalNodes>
          <leafValues>
            7.7571535110473633e-01 -5.3622764348983765e-01</leafValues></_></weakClassifiers></_>
    <!-- stage 5 -->
    <_>
      <maxWeakCount>4</maxWeakCount>
      <stageThreshold>-1.1130338907241821e+00</stageThreshold>
      <weakClassifiers>
        <_>
          <internalNodes>
            0 -1 13 -5.3259553387761116e-03</internalNodes>
          <leafValues>
            8.8059699535369873e-01 -7.7230769395828247e-01</leafValues></_>
        <_>
          <internalNodes>
            0 -1 4 -1.5118843317031860e-01</internalNodes>
          <leafValues>
            4.0037241578102112e-01 -9.5683544874191284e-01</leafValues></_>
        <_>
          <internalNodes>
            0 -1 10 -1.1773191392421722e-01</internalNodes>
          <leafValues>
            -1. 3.1373441219329834e-01</leafValues></_>
        <_>
          <internalNodes>
            0 -1 1 -1.4039704203605652e-01</internalNodes>
          <leafValues>
            3.0237480998039246e-01 -1.</leafValues></_></weakClassifiers></_>
    <!-- stage 6 -->
    <_>
      <maxWeakCount>2</maxWeakCount>
      <stageThreshold>-3.7214550375938416e-01</stageThreshold>
      <weakClassifiers>
        <_>
          <internalNodes>
            0 -1 12 -2.1867142617702484e-01</internalNodes>
          <leafValues>
            -9.9283152818679810e-01 7.5221240520477295e-01</leafValues></_>
        <_>
          <internalNodes>
            0 -1 7 -2.0521374046802521e-01</internalNodes>
          <leafValues>
            -1. 6.2068605422973633e-01</leafValues></_></weakClassifiers></_></stages>
  <features>
    <_>
      <rects>
        <_>
          0 0 5 21 -1.</_>
        <_>
          0 7 5 7 2.</_></rects>
      <tilted>0</tilted></_>
    <_>
      <rects>
        <_>
          0 8 22 6 -1.</_>
        <_>
          0 10 22 2 2.</_></rects>
      <tilted>0</tilted></_>
    <_>
      <rects>
        <_>
          0 12 6 10 -1.</_>
        <_>
          3 12 3 10 2.</_></rects>
      <tilted>0</tilted></_>
    <_>
      <rects>
        <_>
          2 0 8 6 -1.</_>
        <_>
          2 3 8 3 2.</_></rects>
      <tilted>0</tilted></_>
    <_>
      <rects>
        <_>
          2 9 22 6 -1.</_>
        <_>
          2 11 22 2 2.</_></rects>
      <tilted>0</tilted></_>
    <_>
      <rects>
        <_>
          3 18 20 6 -1.</_>
        <_>
          3 20 20 2 2.</_></rects>
      <tilted>0</tilted></_>
    <_>
      <rects>
        <_>
          4 22 18 2 -1.</_>
        <_>
          10 22 6 2 2.</_></rects>
      <tilted>0</tilted></_>
    <_>
      <rects>
        <_>
          5 4 9 16 -1.</_>
        <_>
          8 4 3 16 2.</_></rects>
      <tilted>0</tilted></_>
    <_>
      <rects>
        <_>
          6 6 2 2 -1.</_>
        <_>
          6 6 1 1 2.</_>
        <_>
          7 7 1 1 2.</_></rects>
      <tilted>0</tilted></_>
    <_>
      <rects>
        <_>
          6 18 12 6 -1.</_>
        <_>
          6 20 12 2 2.</_></rects>
      <tilted>0</tilted></_>
    <_>
      <rects>
        <_>
          7 4 12 7 -1.</_>
        <_>
          11 4 4 7 2.</_></rects>
      <tilted>0</tilted></_>
    <_>
      <rects>
        <_>
          7 20 10 4 -1.</_>
        <_>
          7 22 10 2 2.</_></rects>
      <tilted>0</tilted></_>
    <_>
      <rects>
        <_>
          8 0 9 18 -1.</_>
        <_>
          11 0 3 18 2.</_></rects>
      <tilted>0</tilted></_>
    <_>
      <rects>
        <_>
          10 15 2 2 -1.</_>
        <_>
          10 16 2 1 2.</_></rects>
      <tilted>0</tilted></_>
    <_>
      <rects>
        <_>
          10 18 2 2 -1.</_>
        <_>
          10 19 2 1 2.</_></rects>
      <tilted>0</tilted></_>
    <_>
      <rects>
        <_>
          10 18 3 2 -1.</_>
        <_>
          10 19 3 1 2.</_></rects>
      <tilted>0</tilted></_>
    <_>
      <rects>
        <_>
          10 21 14 2 -1.</_>
        <_>
          10 21 7 1 2.</_>
        <_>
          17 22 7 1 2.</_></rects>
      <tilted>0</tilted></_>
    <_>
      <rects>
        <_>
          12 17 3 3 -1.</_>
        <_>
          13 17 1 3 2.</_></rects>
      <tilted>0</tilted></_>
    <_>
      <rects>
        <_>
          16 1 8 22 -1.</_>
        <_>
          20 1 4 22 2.</_></rects>
      <tilted>0</tilted></_>
    <_>
      <rects>
        <_>
          18 0 6 24 -1.</_>
        <_>
          18 8 6 8 2.</_></rects>
      <tilted>0</tilted></_>
    <_>
      <rects>
        <_>
          19 21 4 3 -1.</_>
        <_>
          19 22 4 1 2.</_></rects>
      <tilted>0</tilted></_>
    <_>
      <rects>
        <_>
          21 10 2 3 -1.</_>
        <_>
          22 10 1 3 2.</_></rects>
      <tilted>0</tilted></_></features></cascade>
</opencv_storage>
