<?xml version="1.0"?>
<opencv_storage>
<stage12>
  <maxWeakCount>7</maxWeakCount>
  <stageThreshold>-7.5494080781936646e-01</stageThreshold>
  <weakClassifiers>
    <_>
      <internalNodes>
        0 -1 143810 -2.2049829363822937e-02</internalNodes>
      <leafValues>
        4.2068964242935181e-01 -7.1232879161834717e-01</leafValues></_>
    <_>
      <internalNodes>
        0 -1 127185 -6.0244105756282806e-02</internalNodes>
      <leafValues>
        -7.3342084884643555e-01 3.2903832197189331e-01</leafValues></_>
    <_>
      <internalNodes>
        0 -1 37829 1.1494993232190609e-02</internalNodes>
      <leafValues>
        -3.1280019879341125e-01 8.1865352392196655e-01</leafValues></_>
    <_>
      <internalNodes>
        0 -1 141613 2.0730741322040558e-02</internalNodes>
      <leafValues>
        2.6357865333557129e-01 -9.4561171531677246e-01</leafValues></_>
    <_>
      <internalNodes>
        0 -1 57214 -6.0417642816901207e-03</internalNodes>
      <leafValues>
        8.1011462211608887e-01 -2.9483106732368469e-01</leafValues></_>
    <_>
      <internalNodes>
        0 -1 57169 -8.7564839050173759e-03</internalNodes>
      <leafValues>
        -7.7431511878967285e-01 3.2458940148353577e-01</leafValues></_>
    <_>
      <internalNodes>
        0 -1 98043 6.7675337195396423e-03</internalNodes>
      <leafValues>
        -3.4500974416732788e-01 7.6073127985000610e-01</leafValues></_></weakClassifiers></stage12>
</opencv_storage>
