<?xml version="1.0"?>
<opencv_storage>
<stage18>
  <maxWeakCount>5</maxWeakCount>
  <stageThreshold>-8.7716865539550781e-01</stageThreshold>
  <weakClassifiers>
    <_>
      <internalNodes>
        0 -1 2302 -2.4583358317613602e-02</internalNodes>
      <leafValues>
        -6.0115605592727661e-01 6.7032968997955322e-01</leafValues></_>
    <_>
      <internalNodes>
        0 -1 154760 5.5635292083024979e-03</internalNodes>
      <leafValues>
        -2.7699884772300720e-01 7.2837501764297485e-01</leafValues></_>
    <_>
      <internalNodes>
        0 -1 162335 -6.4568512607365847e-04</internalNodes>
      <leafValues>
        -9.4544517993927002e-01 2.2374223172664642e-01</leafValues></_>
    <_>
      <internalNodes>
        0 -1 85410 -1.5100693330168724e-02</internalNodes>
      <leafValues>
        -8.3595764636993408e-01 2.4773073196411133e-01</leafValues></_>
    <_>
      <internalNodes>
        0 -1 26967 9.9903056398034096e-03</internalNodes>
      <leafValues>
        -3.6063885688781738e-01 6.1320167779922485e-01</leafValues></_></weakClassifiers></stage18>
</opencv_storage>
