<?xml version="1.0"?>
<opencv_storage>
<stage8>
  <maxWeakCount>6</maxWeakCount>
  <stageThreshold>-8.6940330266952515e-01</stageThreshold>
  <weakClassifiers>
    <_>
      <internalNodes>
        0 -1 90285 1.4150783419609070e-02</internalNodes>
      <leafValues>
        -6.9381105899810791e-01 5.0769233703613281e-01</leafValues></_>
    <_>
      <internalNodes>
        0 -1 156553 5.8565861545503139e-03</internalNodes>
      <leafValues>
        -3.3403313159942627e-01 9.2359399795532227e-01</leafValues></_>
    <_>
      <internalNodes>
        0 -1 150093 5.3526964038610458e-03</internalNodes>
      <leafValues>
        -3.1192502379417419e-01 9.1480141878128052e-01</leafValues></_>
    <_>
      <internalNodes>
        0 -1 122692 1.5229618176817894e-02</internalNodes>
      <leafValues>
        4.1300106048583984e-01 -7.8024595975875854e-01</leafValues></_>
    <_>
      <internalNodes>
        0 -1 5028 8.3603318780660629e-03</internalNodes>
      <leafValues>
        -4.0452328324317932e-01 7.8925865888595581e-01</leafValues></_>
    <_>
      <internalNodes>
        0 -1 119400 -6.3430786132812500e-02</internalNodes>
      <leafValues>
        -6.4228510856628418e-01 4.6188816428184509e-01</leafValues></_></weakClassifiers></stage8>
</opencv_storage>
