<?xml version="1.0"?>
<opencv_storage>
<stage9>
  <maxWeakCount>5</maxWeakCount>
  <stageThreshold>-1.0655658245086670e+00</stageThreshold>
  <weakClassifiers>
    <_>
      <internalNodes>
        0 -1 161521 -2.1662466228008270e-02</internalNodes>
      <leafValues>
        -6.9411766529083252e-01 9.1752576828002930e-01</leafValues></_>
    <_>
      <internalNodes>
        0 -1 29189 -8.6110897362232208e-02</internalNodes>
      <leafValues>
        -5.9891927242279053e-01 5.6188225746154785e-01</leafValues></_>
    <_>
      <internalNodes>
        0 -1 158813 -1.0403703898191452e-02</internalNodes>
      <leafValues>
        7.7535897493362427e-01 -3.6524972319602966e-01</leafValues></_>
    <_>
      <internalNodes>
        0 -1 125734 1.6961522400379181e-02</internalNodes>
      <leafValues>
        3.0833801627159119e-01 -9.5306080579757690e-01</leafValues></_>
    <_>
      <internalNodes>
        0 -1 146935 -1.3271576026454568e-03</internalNodes>
      <leafValues>
        -9.4857007265090942e-01 2.8438279032707214e-01</leafValues></_></weakClassifiers></stage9>
</opencv_storage>
