<?xml version="1.0"?>
<opencv_storage>
<stage5>
  <maxWeakCount>5</maxWeakCount>
  <stageThreshold>-9.4706898927688599e-01</stageThreshold>
  <weakClassifiers>
    <_>
      <internalNodes>
        0 -1 562 -8.9179836213588715e-03</internalNodes>
      <leafValues>
        -6.5680474042892456e-01 7.5757575035095215e-01</leafValues></_>
    <_>
      <internalNodes>
        0 -1 151254 -9.3864242080599070e-04</internalNodes>
      <leafValues>
        7.3724091053009033e-01 -4.0660318732261658e-01</leafValues></_>
    <_>
      <internalNodes>
        0 -1 43707 -3.1593688763678074e-03</internalNodes>
      <leafValues>
        7.9089826345443726e-01 -3.8306879997253418e-01</leafValues></_>
    <_>
      <internalNodes>
        0 -1 44344 9.0151955373585224e-04</internalNodes>
      <leafValues>
        -2.9373347759246826e-01 8.2701444625854492e-01</leafValues></_>
    <_>
      <internalNodes>
        0 -1 131524 2.4381424300372601e-03</internalNodes>
      <leafValues>
        -2.8674507141113281e-01 7.9314118623733521e-01</leafValues></_></weakClassifiers></stage5>
</opencv_storage>
